{"num_nodes": [6, 3], "activation_type": "Tanh", "initial_learning_rate": 0.015, "regScale": 0, "epochs": 150, "minibatch_size": 32, "parameters_in_model": 121, "input_length": 15, "output_length": 1, "train_points": 441, "valid_points": 140, "test_points": 140, "training_loss": 0.2162700891494751, "validation_loss": 0.36588606238365173, "test_loss": 0.5609130263328552, "best_validation_loss": "0.356428", "bestEpoch": 124, "bestMinibatch": 1616, "normalization_std": [0.43587398529052734, 0.42650142312049866, 0.43587398529052734, 0.43587398529052734, 0.000100070217740722, 0.005546110216528177, 52.19211196899414, 0.8670196533203125, 0.08658203482627869, 0.2047135978937149, 0.0757620632648468, 43.25210952758789, 51.82646179199219, 0.17271439731121063, 0.06842076778411865], "normalization_mean": [0.2539682686328888, 0.2380952388048172, 0.2539682686328888, 0.2539682686328888, -6.594715387109318e-07, 0.020241640508174896, -162.8988800048828, 17.23748207092285, -0.33354443311691284, 53.84638214111328, 1.4873015880584717, 93.02257537841797, 364.95166015625, 2.6941580772399902, 1.7400000095367432], "normalization_targ_std": [0.1922793835401535], "normalization_targ_mean": [12.598934173583984], "layerWeights": [[[0.6750020384788513, -0.673266589641571, 0.04528915509581566, 0.28438881039619446, 0.05869051441550255, -0.3246783912181854], [-0.22647899389266968, -0.062152352184057236, -0.009519879706203938, -0.17847348749637604, 0.027510162442922592, 0.5580264329910278], [-0.4503534734249115, 0.11009692400693893, 0.5174524188041687, -0.5863182544708252, 0.10556046664714813, -0.06927146762609482], [-0.07396868616342545, -0.07807061821222305, -0.41230401396751404, -0.36724433302879333, 0.2961738109588623, -0.34304291009902954], [-0.39423802495002747, 0.20451518893241882, 0.20163363218307495, 0.09595157951116562, 0.17402873933315277, 0.02196703478693962], [0.4001954197883606, -0.23185479640960693, -0.2456810623407364, -0.013486923649907112, 0.043064408004283905, 0.023232487961649895], [-0.5128577947616577, 0.6667054891586304, 0.00024691197904758155, -0.255282998085022, -0.12231515347957611, 0.18040931224822998], [0.329984188079834, -0.5166751146316528, 0.11853743344545364, 0.0409216582775116, -0.049841608852148056, 0.19381111860275269], [-0.09547749161720276, -0.231609508395195, 0.22821243107318878, -0.4027886688709259, 0.06167177855968475, 0.05197041481733322], [0.09235895425081253, -0.21950599551200867, 0.30439841747283936, -0.19489532709121704, -0.12487300485372543, -0.410042941570282], [0.4234774112701416, -0.18738102912902832, 0.1533975601196289, 0.1924334317445755, 0.07977864891290665, 0.05723920837044716], [-0.20544520020484924, -0.22432352602481842, -0.24749623239040375, -0.04407220706343651, 0.067551389336586, -0.28518423438072205], [0.4052657186985016, -0.17792053520679474, 0.08562026917934418, -0.28225836157798767, 0.20656579732894897, 0.16031919419765472], [-0.003173406468704343, 0.14793215692043304, 0.528806746006012, -0.06792010366916656, 0.06519059836864471, -0.3977639973163605], [0.22001178562641144, -0.014982922933995724, -0.07558491080999374, 0.036713626235723495, 0.3904259502887726, -0.08826331049203873]], [[0.4429916441440582, -0.5145912766456604, -0.5602601170539856], [0.5278176665306091, 0.23929059505462646, 0.5333907008171082], [-0.5766969323158264, -0.1692664623260498, -0.5546973347663879], [0.9049720764160156, 0.5094529390335083, -0.5316028594970703], [-0.15717071294784546, 0.9997320771217346, 0.5010217428207397], [-0.46986138820648193, -0.37125515937805176, 0.01632881909608841]], [[0.6573047041893005], [1.1327232122421265], [0.7213689088821411]]], "layerBiases": [[-0.1931309700012207, 0.20073100924491882, 0.17135879397392273, -0.1523437201976776, -0.018863294273614883, 0.15542928874492645], [0.045287735760211945, -0.003546823048964143, 0.0022375225089490414], [0.022390343248844147]], "train_dataset": [[-6.052388569485768e-07, 0.020736567299696394, -175.51878651218152, 18.46812501927193, -0.4532733127298886, 54.00671407, 1.5, 133.072, 393.841, 2.65], [-6.447381244017877e-07, 0.022193654834150704, -188.92250127364406, 17.2608264828932, -0.33882516680945207, 54.00671407, 1.5, 134.187, 400.803, 2.86], [-6.612937743325578e-07, 0.02309051691454227, -199.48535071252888, 15.754450452354236, -0.21603078337152323, 54.00671407, 1.5, 29.93018, 307.72559, 2.65549], [-6.060394057327489e-07, 0.021005353465556164, -180.05002618247534, 16.829966773470233, -0.32703059261556233, 54.00671407, 1.5, 102.90677, 358.13135, 3.1], [-6.172885590252188e-07, 0.01895481862737557, -143.6447452494994, 16.8220448618819, -0.3469033678943591, 53.58584776, 1.5, 49.53719, 327.31122, 2.45], [-4.854900625214704e-07, 0.016293987871361777, -134.7729793453471, 17.86512350936983, -0.4322805975119141, 54.00671407, 1.5, 166.571, 473.732, 2.86], [-7.028209737237162e-07, 0.020791963354820846, -151.36630034463528, 17.804185023680546, -0.3527066012795253, 53.58584776, 1.5, 116.39266, 375.95706, 2.65], [-7.798388297168433e-07, 0.026953978383159237, -230.4785894381879, 17.716486218736026, -0.33324154377536047, 54.00671407, 1.5, 90.35472, 379.47751, 2.86], [-7.527464840374581e-07, 0.025892757349062108, -220.36047845491012, 16.988298863979523, -0.274253688438102, 54.00671407, 1.3, 118.865, 377.859, 2.65], [-6.768739445198805e-07, 0.020133075418350747, -147.3590702196677, 16.86757723190874, -0.2690807573573543, 53.58584776, 1.5, 80.2288, 375.64148, 2.65], [-6.026354779870019e-07, 0.018115041495801433, -134.18087001468865, 18.495070454699107, -0.5009959940633238, 53.58584776, 1.65, 69.73221, 328.3121, 2.65], [-7.179224680623074e-07, 0.022253590265844968, -170.31017810375235, 17.620130192468444, -0.3606097331699212, 53.58584776, 1.5, 20.4227, 274.77, 2.45], [-6.342519314919729e-07, 0.022173396475437958, -191.7442275806552, 18.25780607275947, -0.4226273430183915, 54.00671407, 1.5, 100.567, 342.903, 2.65], [-6.458400563039225e-07, 0.01898833784841216, -137.24572398916305, 16.7500343015053, -0.2665079771521513, 53.58584776, 1.5, 124.381, 436.343, 2.86], [-6.965331076758233e-07, 0.0022070005588672526, 0.2241962166910154, 15.372391699053987, -0.18166273490862062, 54.00671407, 1.5, 23.31067, 286.25717, 2.45], [-7.428327177817487e-07, 0.025362413412259276, -213.92216867839525, 16.823768421235894, -0.2363928984122192, 54.00671407, 1.3, 139.52892, 411.89908, 2.65]], "buildFeaturevector": "lambda t, plate, imp, thick : [ \n             1 if plate == 0 else 0,    #  is 384PPG (or PP pre-Lemonade)?\n             1 if plate == 1 else 0,    #  is 384PPL?\n             1 if plate == 2 else 0,    #  is 384LDV?\n             1 if plate == 3 else 0,    #  is 1536LDV?                  \n             t['FocalSweepQuadAmpFit']['a'],\n             t['FocalSweepQuadAmpFit']['b'],\n             t['FocalSweepQuadAmpFit']['c'],\n             t['TransducerBandwidthSingleLinearFit']['intercept'],\n             t['TransducerBandwidthSingleLinearFit']['slope'],\n             t['AmpDetails'][0], # RF Slope1\n             t['plateSpecific'][2]['EODetails']['thicknessAtMin'],\n             t['plateSpecific'][2]['EODetails']['ejOffAtMin'],\n             t['plateSpecific'][2]['EODetails']['ejOffAtMax'],\n             t['plateSpecific'][2]['EODetails']['thicknessAtMax'],       \n             imp,     # Impedance  ]", "buildFeatureVector": "lambda t, plate, imp, thick : [ \n             1 if plate == 0 else 0,    #  is 384PPG (or PP pre-Lemonade)?\n             1 if plate == 1 else 0,    #  is 384PPL?\n             1 if plate == 2 else 0,    #  is 384LDV?\n             1 if plate == 3 else 0,    #  is 1536LDV?                  \n             t['FocalSweepQuadAmpFit']['a'],\n             t['FocalSweepQuadAmpFit']['b'],\n             t['FocalSweepQuadAmpFit']['c'],\n             t['TransducerBandwidthSingleLinearFit']['intercept'],\n             t['TransducerBandwidthSingleLinearFit']['slope'],\n             t['AmpDetails'][0], # RF Slope1\n             t['plateSpecific'][2]['EODetails']['thicknessAtMin'],\n             t['plateSpecific'][2]['EODetails']['ejOffAtMin'],\n             t['plateSpecific'][2]['EODetails']['ejOffAtMax'],\n             t['plateSpecific'][2]['EODetails']['thicknessAtMax'],       \n             imp ] # Impedance  "}